{"HiddenLayer":[0,0,0,0,0,1,0,0,0,0,1],"InputLayer":[1074024810,1073798109,1074031143,0,0,0,0,0,0,0,0,0,0,0,0,0,0,0,0,0,0,0,0,0,0,0,0,0,0,0,0,0,0,0,0,0,0,0,0,0,0,0,0,0,0,0,0,0,0,0,1],"OutputLayer":[9712.055364521197],"WeightHidden":[[-0.7977313005255977,-0.8109800116492029,-0.29017173721610445,0.1148811821579494,0.24284427677100062,-0.32706361804767936,-0.058992326478567225,0.8527504279459994,0.9321073078259592,-0.22265620746262826,0.7144090351287895,0.44573093493801386,0.6824845175315692,0.2485181782761916,0.23668549067696754,-0.6049537885303393,0.9936811350420058,0.8870242406749986,0.16659345267720793,0.24019891559901696,0.5978342511237382,0.47958430595449864,0.044334406423606865,-0.9280239546429941,-0.33108636099918276,0.8588150228780782,-0.33806742615459107,-0.33419716601391625,0.337814315350045,-0.2673776595363333,0.9420061057220137,0.34589077858624373,0.44467802202489626,0.7034153284576716,-0.10227484013694887,0.4183198339334846,-0.3168917261769636,-0.1413659575051066,0.4183048299794956,-0.2815873141289714,-0.04468730956193123,-0.7257650266856708,-0.2600050401459236,-0.4499877829354617,-0.6268752888860387,0.9874962344833413,-0.48486007223275784,-0.7190764480818996,0.700506480369034,-0.6338916050602801,-120.58027304606453],[-0.019688077252959846,-0.5526831548346727,-0.7146270559523018,0.963703570218033,0.5160094193186004,0.5739605731399822,-0.4461857913814212,0.9036220008244917,-0.5523313190951078,-0.7715172260548289,-0.05883443143601974,-0.9259572587107281,0.5183787838737697,-0.6276480982417563,-0.5251352872849382,0.6912181230782053,-0.30843733332036194,-0.998864538665579,-0.5735200516529059,0.29847039110785545,-0.08098039664244117,-0.9755852260933765,0.08710475986282207,-0.21707329274726683,-0.19298271283713264,-0.5727076077923687,-0.4184607126056856,-0.7580576617811611,-0.7895597167030036,-0.5917489934172911,-0.7174888245861211,0.9321151130519396,-0.7824296521407678,-0.42880157698650145,0.7776724996318471,0.23732852930024984,-0.18715982902431394,0.904520914809136,0.05495579255104621,0.0729766191694654,-0.9844788935171764,-0.44405756946248454,0.3361807356121598,0.1333232203610093,-0.5303174538265045,-0.44916129725197007,0.12604760866594966,0.5998618120211334,-0.8830774399183322,-0.8302738553824407,-5734.448057705009],[-0.24050953465260616,-0.33956498749922526,-0.06376730400889452,-0.45261022262361683,-0.6163272200969516,-0.641868688383495,0.09818945460839545,0.6842856795873762,0.996143198181479,0.4222497202073081,0.5792797253555524,0.9041156604248632,0.24178440179628935,-0.13200036770024492,-0.6906346427223202,-0.02092818407940944,-0.8195354801637968,-0.025092996326980588,-0.939858756904087,-0.34669455130265747,0.6115715604450516,-0.7799324496506739,-0.24560264310504276,-0.2963836131698038,0.4247051697970903,-0.301041596002279,0.49418103233635846,-0.05251639617881687,-0.6607438739789184,-0.25600617882092835,0.35994010240833174,-0.1646068651481326,0.564794456153914,0.3632683398973655,-0.4969327996088956,0.1789443286711856,0.3125261141354043,-0.9812272487503464,-0.8642016088731858,-0.7148844833993526,-0.40172099430101027,-0.6306711624299235,0.19835653726337643,0.9949198750686541,0.3583565677382221,-0.6574061253011135,-0.7785141761731458,0.04011982414336979,0.4285534560141133,-0.19403095714198693,-133.57959827330356],[-0.25858656862915597,0.6870908391179722,-0.9895343468046213,0.9676104041882061,-0.1715057994978213,-0.31437180965454947,0.9327447725269227,0.45570247017009824,-0.28077983508817916,0.8086243605563868,0.7468034538152768,0.2553669728819339,0.09566291798453186,-0.8233106155965755,0.2180757048286015,0.2829267894738863,0.894750394142048,-0.5743004469762458,0.8020163736786228,-0.18890281447046886,-0.04682904387210163,0.02586315651542681,-0.8047638805327999,0.06101936447804657,0.40061280715463465,0.4262241931641373,0.24379574844192398,-0.819899783801666,-0.44322302387092194,0.15275724652136913,-0.742667367924418,-0.830672092533191,-0.1368675986488722,0.7409220512318868,-0.1799303348594946,-0.05236469531375243,-0.44404042509910424,-0.19279056770081426,-0.22009038760261035,0.819304994028319,0.842019644213343,0.7604262954943626,-0.22334784286196108,0.7370876682700587,-0.3238644301900844,-0.8015094899249862,-0.5014453512522072,0.20769602274832444,0.4987196979105637,-0.8128756246814797,-12275.98513606089],[0.7696352858354132,-0.5521638298476446,-0.45228996950975,-0.2780596539258905,0.9759665250014398,0.47942721183044146,-0.7705803291323974,-0.7040223970664035,0.3257080003980122,-0.9122441973522882,0.5110126177415706,-0.6447135011796085,0.32109005050189987,0.15702958334279504,0.8218367765954231,-0.7759869120433354,0.27640094957236294,0.9356671562106598,0.9615121313342161,0.3463984452063733,-0.3092491580361999,0.5313587219737073,-0.40174390944227245,0.9084520448158906,-0.4667160001295606,0.6087269942806117,0.8627891375646124,0.6366707569441348,0.9416112272149579,0.9610325481189952,0.737195305910219,0.5725868944821066,-0.1633468042443592,0.14761953535466033,0.6907905178855396,0.19142526345502286,-0.5100768895522225,-0.7606963918848939,0.8060216256287178,0.49656969591324196,0.22855887704303912,0.2787482219628863,-0.20227407330212155,0.5754445332309579,0.4309530001146302,-0.2043796893430504,-0.564906852112852,-0.7656843725655109,0.4034509664363921,-0.6118027621227253,-16810.075999092307],[0.41840388318997124,-0.048412558011895146,0.744081239427802,0.0474997510698989,-0.11357156984077887,0.1766018058450829,-0.010173996674552876,-0.26379169434584016,-0.39179401240993617,-0.8591407469590361,-0.004329593828554468,0.008401639439279407,-0.966636617231736,0.07599841922854633,-0.3789840099659809,0.8561684310792583,0.7829974535347264,0.12850106845870313,-0.30251350493805784,-0.2495673420649066,0.8182969062511101,0.29153274826060827,-0.5436491614283824,-0.8687493536293732,0.6185741708454844,-0.9539596937542059,-0.4969931454953376,-0.22968610390817223,0.35753452416929,0.13426482455865307,0.6758340683255608,-0.9950915037283579,-0.7909328849049826,0.0655698615909055,-0.5395588934843762,0.5030355107433993,-0.7603292114665198,0.19375137309826385,-0.46876654373251103,-0.029670496793342993,0.310694635075216,0.4860918385761539,0.7573174001910403,0.7073414855595674,-0.5347580406172457,-0.946095161049667,-0.03350547163635487,0.7305999048601295,-0.21512683119061937,-0.5692930103842198,-45052.95745489884],[0.6577178796971797,-0.9917846856812595,-0.41643218361110323,-0.7572711706997473,-0.026377500978505775,0.4631449613679586,-0.12327239034959914,-0.18877414104166323,0.20876206502928718,0.14938347760264858,-0.9265057579178272,-0.12177124571739673,0.5967165148168851,0.29328964275732083,-0.13787664764109653,-0.6805459977275723,0.5451942356155486,0.388709124572433,0.27116426890641576,-0.8106529865727742,0.99175681157274,-0.039223881461529664,0.6718643743277373,0.7420720858811594,0.10852777543726444,-0.8419113922635599,0.1148195082461616,0.915210610492204,-0.0032620098440436784,0.7172891871550566,-0.7646537730102669,0.5207358430920295,0.25637755056238065,0.6438430506824291,0.8800586015447986,0.9787127329770475,-0.839392889017237,-0.2589038366394012,0.7472392742508911,-0.700239922303514,0.726616226222838,-0.963762893590424,0.7550095493702957,-0.9550445494369376,0.6768435107721191,-0.7351796892822348,0.5752799310605226,0.6647828612767963,-0.7127018950288875,-0.9200327207842017,-3518.7065429220465],[-0.6697389989627576,-0.24787116481343108,0.2550044929953259,-0.003746556890601438,0.06305120403547293,-0.3211520670673127,0.707626576743682,-0.12404717181192637,-0.6362543038898716,-0.1232036813975882,0.991259839412534,0.26216224549668343,0.49222509332611253,-0.09820063355975084,0.3648897915715481,-0.2435104482010968,0.2895205664015983,-0.6431391293373583,-0.9799508319066531,0.05789120666937042,0.9954629004985966,0.17299356629455742,0.7832761068033698,0.4331408117753568,0.24754016366591602,-0.17152050747654934,0.5018066886033858,-0.6235704047867368,-0.45638293861917345,-0.8249010644561887,-0.9117635665367363,0.7015601839297663,0.36462659899528327,0.10005490882701529,0.8834154613133733,-0.9638112073078943,-0.14772130237919612,-0.16090169379306452,0.6026306117311016,-0.8320374418331984,0.22494120772512183,-0.8954431009781058,-0.12077092521508614,-0.5048320942889897,-0.9331103861485798,-0.9110330298925351,-0.20205356996156099,0.6034914100439575,0.7320021208179541,-0.9590601573960952,-160.2818421551844],[-0.8918996046932918,0.02254832893785852,0.53637229025292,-0.5412972736274921,0.951249442994917,-0.14477953026960555,0.4499219648981201,-0.6555002657130959,-0.3320016094439371,0.04202596745231402,0.138688048305033,0.8081431679897362,0.23473489108819612,-0.42860931973894945,-0.5683300911290807,-0.8208715749088782,0.9348428202268155,0.4570270874028719,0.020481170226408052,-0.4299889361425052,0.9820074540814838,-0.17199449485928842,0.27308856624064304,0.8229444934801489,-0.3625388878743372,-0.3718142038335599,-0.7694177198943966,-0.8576745381000692,0.13282053517647285,-0.8417093872351282,-0.8830074726373843,0.25016221443231434,-0.6207655514359379,-0.7293417306551728,0.6379428586879956,0.07956509658038913,0.34094710548398255,0.728854972818981,-0.5552033042925405,0.13456058793594194,0.03562904922526533,0.021812680712442578,-0.7040471079212762,-0.5301099543710465,0.18297254635926885,-0.8327902280781014,-0.0841514404618956,-0.1336362577010365,-0.8781979456931768,-0.5532698586440976,1588.7217581851867],[-0.4189989960845403,0.21757034369344908,-0.9975259331566709,-0.9295276750194101,-0.48514221608520924,-0.6686742500694449,-0.11418746576073135,0.5767966664690392,0.5283634531836425,-0.9455919206860007,-0.41603636013597844,0.8759088749935702,-0.3709835720816125,0.9946709965743927,-0.6781633649452251,-0.8529927743511568,0.6918511078902081,0.307995769863038,0.7588918347332416,0.8556292411171289,0.20024779844878804,0.12725169296698668,0.8103540366345576,0.5883208724563265,-0.6194285575160673,-0.9118704784716745,0.36112383307362017,0.04082132873946542,0.6975185316369368,0.4643172261906279,-0.6406864090250508,0.3815201764324365,-0.5692862146478705,0.8907505812086287,0.6389562184676516,-0.11495328274863559,0.29678921986404583,-0.4380552432328254,-0.28638675446543893,0.4570494627753081,-0.8808161717020537,-0.27934918555532384,-0.10589388270970268,-0.4731321729691965,0.1006807934826861,-0.8982115792506755,-0.17930924484737065,-0.960318111815739,0.9803549485251715,0.8897312148384684,524.9265311318112],[0.19413076284233388,0.15461160958969478,-0.584197532333656,-0.04225133951357629,0.9831485558043467,-0.2464493671526815,-0.9618472627999964,-0.7952935819490267,0.8073529000977635,0.6459140942552384,0.5152536258089908,-0.3865308900132779,0.7062840255239728,-0.26841457235100186,-0.5310029944722986,0.1027691759839966,0.9530474241792182,0.8035679870342887,-0.2885618910656119,-0.27230741409247894,0.2996553487857916,0.4083239475968885,-0.8421396311931045,0.4748851148337765,-0.21466371812014629,0.046679873914242664,0.0714002089645156,0.6819043235957905,0.45808166509002346,-0.35462851338570145,-0.060516234652474354,0.16162942536731517,-0.3546785167824186,0.43137259774153325,-0.5974681626391639,-0.005033479655483619,-0.8410129539265415,0.4722489901476046,-0.05253524516988628,0.9693621492988984,0.8725098649838747,-0.5079013755518718,0.20844232950465114,0.6398175330172113,0.21384100446516285,-0.8451657066880893,-0.4453533730454565,0.7906274611795723,0.4608115511409423,-0.4227700272494649,0.9259367739784923]],"WeightOutput":[[-2574.672386293883,-947.9328978278602,1033.3379183320678,-670.732947778704,-6.718667542478071,-377.74971246511,-1626.590861324583,-203.8300664130256,-193.31665140640567,-3202.5306731263554,10213.169972545476]],"ErrOutput":[-6162.944635478803],"ErrHidden":[15867563.371225296,5842057.967339476,-6368404.380421451,4134016.268307263,41406.77596586913,2708196.0746369017,10024589.422919186,1256193.4143494444,1191399.8197338344,19737019.231900394,0],"LastChangeHidden":[[0,0,0,0,0,0,0,0,0,0,0,0,0,0,0,0,0,0,0,0,0,0,0,0,0,0,0,0,0,0,0,0,0,0,0,0,0,0,0,0,0,0,0,0,0,0,0,0,0,0,0],[0,0,0,0,0,0,0,0,0,0,0,0,0,0,0,0,0,0,0,0,0,0,0,0,0,0,0,0,0,0,0,0,0,0,0,0,0,0,0,0,0,0,0,0,0,0,0,0,0,0,0],[0,0,0,0,0,0,0,0,0,0,0,0,0,0,0,0,0,0,0,0,0,0,0,0,0,0,0,0,0,0,0,0,0,0,0,0,0,0,0,0,0,0,0,0,0,0,0,0,0,0,0],[0,0,0,0,0,0,0,0,0,0,0,0,0,0,0,0,0,0,0,0,0,0,0,0,0,0,0,0,0,0,0,0,0,0,0,0,0,0,0,0,0,0,0,0,0,0,0,0,0,0,0],[0,0,0,0,0,0,0,0,0,0,0,0,0,0,0,0,0,0,0,0,0,0,0,0,0,0,0,0,0,0,0,0,0,0,0,0,0,0,0,0,0,0,0,0,0,0,0,0,0,0,0],[0,0,0,0,0,0,0,0,0,0,0,0,0,0,0,0,0,0,0,0,0,0,0,0,0,0,0,0,0,0,0,0,0,0,0,0,0,0,0,0,0,0,0,0,0,0,0,0,0,0,0],[0,0,0,0,0,0,0,0,0,0,0,0,0,0,0,0,0,0,0,0,0,0,0,0,0,0,0,0,0,0,0,0,0,0,0,0,0,0,0,0,0,0,0,0,0,0,0,0,0,0,0],[0,0,0,0,0,0,0,0,0,0,0,0,0,0,0,0,0,0,0,0,0,0,0,0,0,0,0,0,0,0,0,0,0,0,0,0,0,0,0,0,0,0,0,0,0,0,0,0,0,0,0],[0,0,0,0,0,0,0,0,0,0,0,0,0,0,0,0,0,0,0,0,0,0,0,0,0,0,0,0,0,0,0,0,0,0,0,0,0,0,0,0,0,0,0,0,0,0,0,0,0,0,0],[0,0,0,0,0,0,0,0,0,0,0,0,0,0,0,0,0,0,0,0,0,0,0,0,0,0,0,0,0,0,0,0,0,0,0,0,0,0,0,0,0,0,0,0,0,0,0,0,0,0,0],[0,0,0,0,0,0,0,0,0,0,0,0,0,0,0,0,0,0,0,0,0,0,0,0,0,0,0,0,0,0,0,0,0,0,0,0,0,0,0,0,0,0,0,0,0,0,0,0,0,0,0]],"LastChangeOutput":[[3.648214474287536e-309,1.9894980080840676e-8,3.648214474287536e-309,-0.05293670070263924,1.9894980080840676e-8,-61.68244777958447,7.082908831846896e-59,3.648214474287536e-309,-1.0200352585559546e-13,0,-61.68244777958447]],"Regression":true,"Rate1":0.01,"Rate2":0.001}
